<?xml version="1.0"?>
<opencv_storage>
<cascade>
  <stageType>BOOST</stageType>
  <featureType>HAAR</featureType>
  <height>46</height>
  <width>38</width>
  <stageParams>
    <boostType>GAB</boostType>
    <minHitRate>9.9500000476837158e-01</minHitRate>
    <maxFalseAlarm>5.0000000000000000e-01</maxFalseAlarm>
    <weightTrimRate>9.4999998807907104e-01</weightTrimRate>
    <maxDepth>1</maxDepth>
    <maxWeakCount>100</maxWeakCount></stageParams>
  <featureParams>
    <maxCatCount>0</maxCatCount>
    <featSize>1</featSize>
    <mode>BASIC</mode></featureParams>
  <stageNum>3</stageNum>
  <stages>
    <!-- stage 0 -->
    <_>
      <maxWeakCount>2</maxWeakCount>
      <stageThreshold>-7.5082772970199585e-01</stageThreshold>
      <weakClassifiers>
        <_>
          <internalNodes>
            0 -1 4 -1.7864707112312317e-01</internalNodes>
          <leafValues>
            2.0000000298023224e-01 -9.4405591487884521e-01</leafValues></_>
        <_>
          <internalNodes>
            0 -1 2 -1.7976880073547363e-02</internalNodes>
          <leafValues>
            1.9322822988033295e-01 -9.3954592943191528e-01</leafValues></_></weakClassifiers></_>
    <!-- stage 1 -->
    <_>
      <maxWeakCount>2</maxWeakCount>
      <stageThreshold>-5.1664084196090698e-01</stageThreshold>
      <weakClassifiers>
        <_>
          <internalNodes>
            0 -1 5 -3.7981619243510067e-04</internalNodes>
          <leafValues>
            1. -8.6335402727127075e-01</leafValues></_>
        <_>
          <internalNodes>
            0 -1 3 -3.3892914652824402e-02</internalNodes>
          <leafValues>
            3.4671318531036377e-01 -1.</leafValues></_></weakClassifiers></_>
    <!-- stage 2 -->
    <_>
      <maxWeakCount>2</maxWeakCount>
      <stageThreshold>1.9801979884505272e-02</stageThreshold>
      <weakClassifiers>
        <_>
          <internalNodes>
            0 -1 1 -6.7710650910157710e-05</internalNodes>
          <leafValues>
            -9.8019802570343018e-01 1.</leafValues></_>
        <_>
          <internalNodes>
            0 -1 0 -3.6244391230866313e-04</internalNodes>
          <leafValues>
            -9.6153843402862549e-01 1.</leafValues></_></weakClassifiers></_></stages>
  <features>
    <_>
      <rects>
        <_>
          0 5 2 12 -1.</_>
        <_>
          0 11 2 6 2.</_></rects>
      <tilted>0</tilted></_>
    <_>
      <rects>
        <_>
          0 6 4 4 -1.</_>
        <_>
          0 8 4 2 2.</_></rects>
      <tilted>0</tilted></_>
    <_>
      <rects>
        <_>
          13 11 18 12 -1.</_>
        <_>
          22 11 9 12 2.</_></rects>
      <tilted>0</tilted></_>
    <_>
      <rects>
        <_>
          15 2 3 44 -1.</_>
        <_>
          15 24 3 22 2.</_></rects>
      <tilted>0</tilted></_>
    <_>
      <rects>
        <_>
          19 1 14 34 -1.</_>
        <_>
          19 18 14 17 2.</_></rects>
      <tilted>0</tilted></_>
    <_>
      <rects>
        <_>
          20 6 3 1 -1.</_>
        <_>
          21 6 1 1 3.</_></rects>
      <tilted>0</tilted></_></features></cascade>
</opencv_storage>
